digraph Tree {
node [shape=box] ;
0 [label="X[8] <= 8.5\ngini = 0.5\nsamples = 14278\nvalue = [7140, 7138]"] ;
1 [label="X[8] <= 6.5\ngini = 0.125\nsamples = 6915\nvalue = [6452, 463]"] ;
0 -> 1 [labeldistance=2.5, labelangle=45, headlabel="True"] ;
2 [label="X[8] <= 4.5\ngini = 0.051\nsamples = 5637\nvalue = [5489, 148]"] ;
1 -> 2 ;
3 [label="X[7] <= 0.5\ngini = 0.019\nsamples = 3987\nvalue = [3949, 38]"] ;
2 -> 3 ;
4 [label="X[8] <= 3.5\ngini = 0.048\nsamples = 1139\nvalue = [1111, 28]"] ;
3 -> 4 ;
5 [label="X[1] <= 0.5\ngini = 0.016\nsamples = 868\nvalue = [861, 7]"] ;
4 -> 5 ;
6 [label="X[6] <= 30.5\ngini = 0.012\nsamples = 832\nvalue = [827, 5]"] ;
5 -> 6 ;
7 [label="X[3] <= 0.5\ngini = 0.024\nsamples = 419\nvalue = [414, 5]"] ;
6 -> 7 ;
8 [label="gini = 0.0\nsamples = 190\nvalue = [190, 0]"] ;
7 -> 8 ;
9 [label="X[6] <= 29.5\ngini = 0.043\nsamples = 229\nvalue = [224, 5]"] ;
7 -> 9 ;
10 [label="X[8] <= 2.5\ngini = 0.036\nsamples = 218\nvalue = [214, 4]"] ;
9 -> 10 ;
11 [label="X[6] <= 22.5\ngini = 0.014\nsamples = 140\nvalue = [139, 1]"] ;
10 -> 11 ;
12 [label="X[6] <= 21.5\ngini = 0.038\nsamples = 52\nvalue = [51, 1]"] ;
11 -> 12 ;
13 [label="gini = 0.0\nsamples = 40\nvalue = [40, 0]"] ;
12 -> 13 ;
14 [label="gini = 0.153\nsamples = 12\nvalue = [11, 1]"] ;
12 -> 14 ;
15 [label="gini = 0.0\nsamples = 88\nvalue = [88, 0]"] ;
11 -> 15 ;
16 [label="X[4] <= 0.5\ngini = 0.074\nsamples = 78\nvalue = [75, 3]"] ;
10 -> 16 ;
17 [label="X[6] <= 19.5\ngini = 0.095\nsamples = 60\nvalue = [57, 3]"] ;
16 -> 17 ;
18 [label="gini = 0.165\nsamples = 11\nvalue = [10, 1]"] ;
17 -> 18 ;
19 [label="X[6] <= 23.5\ngini = 0.078\nsamples = 49\nvalue = [47, 2]"] ;
17 -> 19 ;
20 [label="gini = 0.0\nsamples = 14\nvalue = [14, 0]"] ;
19 -> 20 ;
21 [label="X[5] <= 0.5\ngini = 0.108\nsamples = 35\nvalue = [33, 2]"] ;
19 -> 21 ;
22 [label="gini = 0.153\nsamples = 12\nvalue = [11, 1]"] ;
21 -> 22 ;
23 [label="X[6] <= 26.5\ngini = 0.083\nsamples = 23\nvalue = [22, 1]"] ;
21 -> 23 ;
24 [label="gini = 0.142\nsamples = 13\nvalue = [12, 1]"] ;
23 -> 24 ;
25 [label="gini = 0.0\nsamples = 10\nvalue = [10, 0]"] ;
23 -> 25 ;
26 [label="gini = 0.0\nsamples = 18\nvalue = [18, 0]"] ;
16 -> 26 ;
27 [label="gini = 0.165\nsamples = 11\nvalue = [10, 1]"] ;
9 -> 27 ;
28 [label="gini = 0.0\nsamples = 413\nvalue = [413, 0]"] ;
6 -> 28 ;
29 [label="X[8] <= 2.5\ngini = 0.105\nsamples = 36\nvalue = [34, 2]"] ;
5 -> 29 ;
30 [label="gini = 0.0\nsamples = 24\nvalue = [24, 0]"] ;
29 -> 30 ;
31 [label="gini = 0.278\nsamples = 12\nvalue = [10, 2]"] ;
29 -> 31 ;
32 [label="X[6] <= 21.5\ngini = 0.143\nsamples = 271\nvalue = [250, 21]"] ;
4 -> 32 ;
33 [label="X[5] <= 0.5\ngini = 0.32\nsamples = 35\nvalue = [28, 7]"] ;
32 -> 33 ;
34 [label="gini = 0.444\nsamples = 15\nvalue = [10, 5]"] ;
33 -> 34 ;
35 [label="X[6] <= 19.5\ngini = 0.18\nsamples = 20\nvalue = [18, 2]"] ;
33 -> 35 ;
36 [label="gini = 0.18\nsamples = 10\nvalue = [9, 1]"] ;
35 -> 36 ;
37 [label="gini = 0.18\nsamples = 10\nvalue = [9, 1]"] ;
35 -> 37 ;
38 [label="X[4] <= 0.5\ngini = 0.112\nsamples = 236\nvalue = [222, 14]"] ;
32 -> 38 ;
39 [label="X[0] <= 0.5\ngini = 0.137\nsamples = 189\nvalue = [175, 14]"] ;
38 -> 39 ;
40 [label="X[6] <= 38.5\ngini = 0.165\nsamples = 154\nvalue = [140, 14]"] ;
39 -> 40 ;
41 [label="X[6] <= 34.5\ngini = 0.189\nsamples = 123\nvalue = [110, 13]"] ;
40 -> 41 ;
42 [label="X[6] <= 26.5\ngini = 0.145\nsamples = 102\nvalue = [94, 8]"] ;
41 -> 42 ;
43 [label="X[5] <= 0.5\ngini = 0.234\nsamples = 37\nvalue = [32, 5]"] ;
42 -> 43 ;
44 [label="gini = 0.111\nsamples = 17\nvalue = [16, 1]"] ;
43 -> 44 ;
45 [label="gini = 0.32\nsamples = 20\nvalue = [16, 4]"] ;
43 -> 45 ;
46 [label="X[3] <= 0.5\ngini = 0.088\nsamples = 65\nvalue = [62, 3]"] ;
42 -> 46 ;
47 [label="gini = 0.0\nsamples = 22\nvalue = [22, 0]"] ;
46 -> 47 ;
48 [label="X[6] <= 32.5\ngini = 0.13\nsamples = 43\nvalue = [40, 3]"] ;
46 -> 48 ;
49 [label="X[6] <= 28.5\ngini = 0.18\nsamples = 30\nvalue = [27, 3]"] ;
48 -> 49 ;
50 [label="gini = 0.0\nsamples = 10\nvalue = [10, 0]"] ;
49 -> 50 ;
51 [label="gini = 0.255\nsamples = 20\nvalue = [17, 3]"] ;
49 -> 51 ;
52 [label="gini = 0.0\nsamples = 13\nvalue = [13, 0]"] ;
48 -> 52 ;
53 [label="gini = 0.363\nsamples = 21\nvalue = [16, 5]"] ;
41 -> 53 ;
54 [label="X[6] <= 44.5\ngini = 0.062\nsamples = 31\nvalue = [30, 1]"] ;
40 -> 54 ;
55 [label="gini = 0.0\nsamples = 21\nvalue = [21, 0]"] ;
54 -> 55 ;
56 [label="gini = 0.18\nsamples = 10\nvalue = [9, 1]"] ;
54 -> 56 ;
57 [label="gini = 0.0\nsamples = 35\nvalue = [35, 0]"] ;
39 -> 57 ;
58 [label="gini = 0.0\nsamples = 47\nvalue = [47, 0]"] ;
38 -> 58 ;
59 [label="X[6] <= 19.5\ngini = 0.007\nsamples = 2848\nvalue = [2838, 10]"] ;
3 -> 59 ;
60 [label="X[8] <= 2.5\ngini = 0.04\nsamples = 243\nvalue = [238, 5]"] ;
59 -> 60 ;
61 [label="gini = 0.0\nsamples = 127\nvalue = [127, 0]"] ;
60 -> 61 ;
62 [label="X[6] <= 18.5\ngini = 0.082\nsamples = 116\nvalue = [111, 5]"] ;
60 -> 62 ;
63 [label="X[3] <= 0.5\ngini = 0.03\nsamples = 66\nvalue = [65, 1]"] ;
62 -> 63 ;
64 [label="gini = 0.0\nsamples = 36\nvalue = [36, 0]"] ;
63 -> 64 ;
65 [label="X[5] <= 0.5\ngini = 0.064\nsamples = 30\nvalue = [29, 1]"] ;
63 -> 65 ;
66 [label="gini = 0.133\nsamples = 14\nvalue = [13, 1]"] ;
65 -> 66 ;
67 [label="gini = 0.0\nsamples = 16\nvalue = [16, 0]"] ;
65 -> 67 ;
68 [label="X[0] <= 0.5\ngini = 0.147\nsamples = 50\nvalue = [46, 4]"] ;
62 -> 68 ;
69 [label="X[3] <= 0.5\ngini = 0.18\nsamples = 40\nvalue = [36, 4]"] ;
68 -> 69 ;
70 [label="gini = 0.298\nsamples = 11\nvalue = [9, 2]"] ;
69 -> 70 ;
71 [label="X[5] <= 0.5\ngini = 0.128\nsamples = 29\nvalue = [27, 2]"] ;
69 -> 71 ;
72 [label="gini = 0.231\nsamples = 15\nvalue = [13, 2]"] ;
71 -> 72 ;
73 [label="gini = 0.0\nsamples = 14\nvalue = [14, 0]"] ;
71 -> 73 ;
74 [label="gini = 0.0\nsamples = 10\nvalue = [10, 0]"] ;
68 -> 74 ;
75 [label="X[6] <= 33.5\ngini = 0.004\nsamples = 2605\nvalue = [2600, 5]"] ;
59 -> 75 ;
76 [label="X[6] <= 32.5\ngini = 0.006\nsamples = 1600\nvalue = [1595, 5]"] ;
75 -> 76 ;
77 [label="X[2] <= 0.5\ngini = 0.004\nsamples = 1480\nvalue = [1477, 3]"] ;
76 -> 77 ;
78 [label="X[8] <= 3.5\ngini = 0.002\nsamples = 1257\nvalue = [1256, 1]"] ;
77 -> 78 ;
79 [label="gini = 0.0\nsamples = 934\nvalue = [934, 0]"] ;
78 -> 79 ;
80 [label="X[6] <= 25.5\ngini = 0.006\nsamples = 323\nvalue = [322, 1]"] ;
78 -> 80 ;
81 [label="X[6] <= 24.5\ngini = 0.016\nsamples = 128\nvalue = [127, 1]"] ;
80 -> 81 ;
82 [label="gini = 0.0\nsamples = 95\nvalue = [95, 0]"] ;
81 -> 82 ;
83 [label="X[5] <= 0.5\ngini = 0.059\nsamples = 33\nvalue = [32, 1]"] ;
81 -> 83 ;
84 [label="gini = 0.0\nsamples = 16\nvalue = [16, 0]"] ;
83 -> 84 ;
85 [label="gini = 0.111\nsamples = 17\nvalue = [16, 1]"] ;
83 -> 85 ;
86 [label="gini = 0.0\nsamples = 195\nvalue = [195, 0]"] ;
80 -> 86 ;
87 [label="X[6] <= 21.5\ngini = 0.018\nsamples = 223\nvalue = [221, 2]"] ;
77 -> 87 ;
88 [label="X[5] <= 0.5\ngini = 0.077\nsamples = 25\nvalue = [24, 1]"] ;
87 -> 88 ;
89 [label="gini = 0.0\nsamples = 14\nvalue = [14, 0]"] ;
88 -> 89 ;
90 [label="gini = 0.165\nsamples = 11\nvalue = [10, 1]"] ;
88 -> 90 ;
91 [label="X[6] <= 28.5\ngini = 0.01\nsamples = 198\nvalue = [197, 1]"] ;
87 -> 91 ;
92 [label="gini = 0.0\nsamples = 132\nvalue = [132, 0]"] ;
91 -> 92 ;
93 [label="X[6] <= 29.5\ngini = 0.03\nsamples = 66\nvalue = [65, 1]"] ;
91 -> 93 ;
94 [label="gini = 0.165\nsamples = 11\nvalue = [10, 1]"] ;
93 -> 94 ;
95 [label="gini = 0.0\nsamples = 55\nvalue = [55, 0]"] ;
93 -> 95 ;
96 [label="X[3] <= 0.5\ngini = 0.033\nsamples = 120\nvalue = [118, 2]"] ;
76 -> 96 ;
97 [label="gini = 0.0\nsamples = 51\nvalue = [51, 0]"] ;
96 -> 97 ;
98 [label="X[8] <= 3.5\ngini = 0.056\nsamples = 69\nvalue = [67, 2]"] ;
96 -> 98 ;
99 [label="X[5] <= 0.5\ngini = 0.036\nsamples = 55\nvalue = [54, 1]"] ;
98 -> 99 ;
100 [label="X[4] <= 0.5\ngini = 0.077\nsamples = 25\nvalue = [24, 1]"] ;
99 -> 100 ;
101 [label="gini = 0.142\nsamples = 13\nvalue = [12, 1]"] ;
100 -> 101 ;
102 [label="gini = 0.0\nsamples = 12\nvalue = [12, 0]"] ;
100 -> 102 ;
103 [label="gini = 0.0\nsamples = 30\nvalue = [30, 0]"] ;
99 -> 103 ;
104 [label="gini = 0.133\nsamples = 14\nvalue = [13, 1]"] ;
98 -> 104 ;
105 [label="gini = 0.0\nsamples = 1005\nvalue = [1005, 0]"] ;
75 -> 105 ;
106 [label="X[7] <= 0.5\ngini = 0.124\nsamples = 1650\nvalue = [1540, 110]"] ;
2 -> 106 ;
107 [label="X[6] <= 26.5\ngini = 0.257\nsamples = 548\nvalue = [465, 83]"] ;
106 -> 107 ;
108 [label="X[0] <= 0.5\ngini = 0.374\nsamples = 213\nvalue = [160, 53]"] ;
107 -> 108 ;
109 [label="X[8] <= 5.5\ngini = 0.432\nsamples = 168\nvalue = [115, 53]"] ;
108 -> 109 ;
110 [label="X[5] <= 0.5\ngini = 0.364\nsamples = 96\nvalue = [73, 23]"] ;
109 -> 110 ;
111 [label="X[6] <= 23.5\ngini = 0.405\nsamples = 46\nvalue = [33, 13]"] ;
110 -> 111 ;
112 [label="X[6] <= 21.5\ngini = 0.452\nsamples = 29\nvalue = [19, 10]"] ;
111 -> 112 ;
113 [label="gini = 0.36\nsamples = 17\nvalue = [13, 4]"] ;
112 -> 113 ;
114 [label="gini = 0.5\nsamples = 12\nvalue = [6, 6]"] ;
112 -> 114 ;
115 [label="gini = 0.291\nsamples = 17\nvalue = [14, 3]"] ;
111 -> 115 ;
116 [label="X[6] <= 23.5\ngini = 0.32\nsamples = 50\nvalue = [40, 10]"] ;
110 -> 116 ;
117 [label="X[6] <= 21.5\ngini = 0.264\nsamples = 32\nvalue = [27, 5]"] ;
116 -> 117 ;
118 [label="gini = 0.278\nsamples = 18\nvalue = [15, 3]"] ;
117 -> 118 ;
119 [label="gini = 0.245\nsamples = 14\nvalue = [12, 2]"] ;
117 -> 119 ;
120 [label="gini = 0.401\nsamples = 18\nvalue = [13, 5]"] ;
116 -> 120 ;
121 [label="X[3] <= 0.5\ngini = 0.486\nsamples = 72\nvalue = [42, 30]"] ;
109 -> 121 ;
122 [label="gini = 0.469\nsamples = 16\nvalue = [6, 10]"] ;
121 -> 122 ;
123 [label="X[6] <= 21.5\ngini = 0.459\nsamples = 56\nvalue = [36, 20]"] ;
121 -> 123 ;
124 [label="X[6] <= 18.5\ngini = 0.287\nsamples = 23\nvalue = [19, 4]"] ;
123 -> 124 ;
125 [label="gini = 0.32\nsamples = 10\nvalue = [8, 2]"] ;
124 -> 125 ;
126 [label="gini = 0.26\nsamples = 13\nvalue = [11, 2]"] ;
124 -> 126 ;
127 [label="X[6] <= 23.5\ngini = 0.5\nsamples = 33\nvalue = [17, 16]"] ;
123 -> 127 ;
128 [label="gini = 0.397\nsamples = 11\nvalue = [3, 8]"] ;
127 -> 128 ;
129 [label="X[5] <= 0.5\ngini = 0.463\nsamples = 22\nvalue = [14, 8]"] ;
127 -> 129 ;
130 [label="gini = 0.444\nsamples = 12\nvalue = [8, 4]"] ;
129 -> 130 ;
131 [label="gini = 0.48\nsamples = 10\nvalue = [6, 4]"] ;
129 -> 131 ;
132 [label="gini = 0.0\nsamples = 45\nvalue = [45, 0]"] ;
108 -> 132 ;
133 [label="X[0] <= 0.5\ngini = 0.163\nsamples = 335\nvalue = [305, 30]"] ;
107 -> 133 ;
134 [label="X[6] <= 37.5\ngini = 0.2\nsamples = 266\nvalue = [236, 30]"] ;
133 -> 134 ;
135 [label="X[8] <= 5.5\ngini = 0.261\nsamples = 175\nvalue = [148, 27]"] ;
134 -> 135 ;
136 [label="X[6] <= 27.5\ngini = 0.199\nsamples = 89\nvalue = [79, 10]"] ;
135 -> 136 ;
137 [label="gini = 0.0\nsamples = 12\nvalue = [12, 0]"] ;
136 -> 137 ;
138 [label="X[6] <= 29.5\ngini = 0.226\nsamples = 77\nvalue = [67, 10]"] ;
136 -> 138 ;
139 [label="gini = 0.332\nsamples = 19\nvalue = [15, 4]"] ;
138 -> 139 ;
140 [label="X[6] <= 32.5\ngini = 0.185\nsamples = 58\nvalue = [52, 6]"] ;
138 -> 140 ;
141 [label="X[5] <= 0.5\ngini = 0.121\nsamples = 31\nvalue = [29, 2]"] ;
140 -> 141 ;
142 [label="gini = 0.198\nsamples = 18\nvalue = [16, 2]"] ;
141 -> 142 ;
143 [label="gini = 0.0\nsamples = 13\nvalue = [13, 0]"] ;
141 -> 143 ;
144 [label="X[5] <= 0.5\ngini = 0.252\nsamples = 27\nvalue = [23, 4]"] ;
140 -> 144 ;
145 [label="gini = 0.219\nsamples = 16\nvalue = [14, 2]"] ;
144 -> 145 ;
146 [label="gini = 0.298\nsamples = 11\nvalue = [9, 2]"] ;
144 -> 146 ;
147 [label="X[6] <= 34.5\ngini = 0.317\nsamples = 86\nvalue = [69, 17]"] ;
135 -> 147 ;
148 [label="X[6] <= 29.5\ngini = 0.274\nsamples = 67\nvalue = [56, 11]"] ;
147 -> 148 ;
149 [label="X[5] <= 0.5\ngini = 0.346\nsamples = 27\nvalue = [21, 6]"] ;
148 -> 149 ;
150 [label="gini = 0.165\nsamples = 11\nvalue = [10, 1]"] ;
149 -> 150 ;
151 [label="gini = 0.43\nsamples = 16\nvalue = [11, 5]"] ;
149 -> 151 ;
152 [label="X[6] <= 30.5\ngini = 0.219\nsamples = 40\nvalue = [35, 5]"] ;
148 -> 152 ;
153 [label="gini = 0.0\nsamples = 10\nvalue = [10, 0]"] ;
152 -> 153 ;
154 [label="X[3] <= 0.5\ngini = 0.278\nsamples = 30\nvalue = [25, 5]"] ;
152 -> 154 ;
155 [label="gini = 0.165\nsamples = 11\nvalue = [10, 1]"] ;
154 -> 155 ;
156 [label="gini = 0.332\nsamples = 19\nvalue = [15, 4]"] ;
154 -> 156 ;
157 [label="gini = 0.432\nsamples = 19\nvalue = [13, 6]"] ;
147 -> 157 ;
158 [label="X[6] <= 42.5\ngini = 0.064\nsamples = 91\nvalue = [88, 3]"] ;
134 -> 158 ;
159 [label="X[6] <= 39.5\ngini = 0.127\nsamples = 44\nvalue = [41, 3]"] ;
158 -> 159 ;
160 [label="gini = 0.0\nsamples = 17\nvalue = [17, 0]"] ;
159 -> 160 ;
161 [label="X[5] <= 0.5\ngini = 0.198\nsamples = 27\nvalue = [24, 3]"] ;
159 -> 161 ;
162 [label="gini = 0.142\nsamples = 13\nvalue = [12, 1]"] ;
161 -> 162 ;
163 [label="gini = 0.245\nsamples = 14\nvalue = [12, 2]"] ;
161 -> 163 ;
164 [label="gini = 0.0\nsamples = 47\nvalue = [47, 0]"] ;
158 -> 164 ;
165 [label="gini = 0.0\nsamples = 69\nvalue = [69, 0]"] ;
133 -> 165 ;
166 [label="X[8] <= 5.5\ngini = 0.048\nsamples = 1102\nvalue = [1075, 27]"] ;
106 -> 166 ;
167 [label="X[6] <= 17.5\ngini = 0.023\nsamples = 594\nvalue = [587, 7]"] ;
166 -> 167 ;
168 [label="gini = 0.124\nsamples = 15\nvalue = [14, 1]"] ;
167 -> 168 ;
169 [label="X[0] <= 0.5\ngini = 0.021\nsamples = 579\nvalue = [573, 6]"] ;
167 -> 169 ;
170 [label="X[6] <= 22.5\ngini = 0.028\nsamples = 425\nvalue = [419, 6]"] ;
169 -> 170 ;
171 [label="X[6] <= 20.5\ngini = 0.067\nsamples = 58\nvalue = [56, 2]"] ;
170 -> 171 ;
172 [label="gini = 0.0\nsamples = 34\nvalue = [34, 0]"] ;
171 -> 172 ;
173 [label="gini = 0.153\nsamples = 24\nvalue = [22, 2]"] ;
171 -> 173 ;
174 [label="X[4] <= 0.5\ngini = 0.022\nsamples = 367\nvalue = [363, 4]"] ;
170 -> 174 ;
175 [label="X[6] <= 30.5\ngini = 0.013\nsamples = 298\nvalue = [296, 2]"] ;
174 -> 175 ;
176 [label="gini = 0.0\nsamples = 122\nvalue = [122, 0]"] ;
175 -> 176 ;
177 [label="X[6] <= 31.5\ngini = 0.022\nsamples = 176\nvalue = [174, 2]"] ;
175 -> 177 ;
178 [label="gini = 0.083\nsamples = 23\nvalue = [22, 1]"] ;
177 -> 178 ;
179 [label="X[2] <= 0.5\ngini = 0.013\nsamples = 153\nvalue = [152, 1]"] ;
177 -> 179 ;
180 [label="gini = 0.0\nsamples = 124\nvalue = [124, 0]"] ;
179 -> 180 ;
181 [label="X[6] <= 35.5\ngini = 0.067\nsamples = 29\nvalue = [28, 1]"] ;
179 -> 181 ;
182 [label="gini = 0.0\nsamples = 14\nvalue = [14, 0]"] ;
181 -> 182 ;
183 [label="gini = 0.124\nsamples = 15\nvalue = [14, 1]"] ;
181 -> 183 ;
184 [label="X[2] <= 0.5\ngini = 0.056\nsamples = 69\nvalue = [67, 2]"] ;
174 -> 184 ;
185 [label="X[6] <= 25.5\ngini = 0.034\nsamples = 58\nvalue = [57, 1]"] ;
184 -> 185 ;
186 [label="gini = 0.18\nsamples = 10\nvalue = [9, 1]"] ;
185 -> 186 ;
187 [label="gini = 0.0\nsamples = 48\nvalue = [48, 0]"] ;
185 -> 187 ;
188 [label="gini = 0.165\nsamples = 11\nvalue = [10, 1]"] ;
184 -> 188 ;
189 [label="gini = 0.0\nsamples = 154\nvalue = [154, 0]"] ;
169 -> 189 ;
190 [label="X[6] <= 33.5\ngini = 0.076\nsamples = 508\nvalue = [488, 20]"] ;
166 -> 190 ;
191 [label="X[6] <= 31.5\ngini = 0.099\nsamples = 344\nvalue = [326, 18]"] ;
190 -> 191 ;
192 [label="X[1] <= 0.5\ngini = 0.078\nsamples = 295\nvalue = [283, 12]"] ;
191 -> 192 ;
193 [label="X[6] <= 29.5\ngini = 0.069\nsamples = 281\nvalue = [271, 10]"] ;
192 -> 193 ;
194 [label="X[6] <= 28.5\ngini = 0.08\nsamples = 240\nvalue = [230, 10]"] ;
193 -> 194 ;
195 [label="X[2] <= 0.5\ngini = 0.071\nsamples = 218\nvalue = [210, 8]"] ;
194 -> 195 ;
196 [label="X[6] <= 22.5\ngini = 0.056\nsamples = 172\nvalue = [167, 5]"] ;
195 -> 196 ;
197 [label="X[6] <= 18.5\ngini = 0.023\nsamples = 85\nvalue = [84, 1]"] ;
196 -> 197 ;
198 [label="X[6] <= 17.5\ngini = 0.069\nsamples = 28\nvalue = [27, 1]"] ;
197 -> 198 ;
199 [label="gini = 0.0\nsamples = 16\nvalue = [16, 0]"] ;
198 -> 199 ;
200 [label="gini = 0.153\nsamples = 12\nvalue = [11, 1]"] ;
198 -> 200 ;
201 [label="gini = 0.0\nsamples = 57\nvalue = [57, 0]"] ;
197 -> 201 ;
202 [label="X[4] <= 0.5\ngini = 0.088\nsamples = 87\nvalue = [83, 4]"] ;
196 -> 202 ;
203 [label="X[6] <= 23.5\ngini = 0.053\nsamples = 73\nvalue = [71, 2]"] ;
202 -> 203 ;
204 [label="gini = 0.142\nsamples = 13\nvalue = [12, 1]"] ;
203 -> 204 ;
205 [label="X[6] <= 26.5\ngini = 0.033\nsamples = 60\nvalue = [59, 1]"] ;
203 -> 205 ;
206 [label="X[6] <= 25.5\ngini = 0.056\nsamples = 35\nvalue = [34, 1]"] ;
205 -> 206 ;
207 [label="gini = 0.0\nsamples = 21\nvalue = [21, 0]"] ;
206 -> 207 ;
208 [label="gini = 0.133\nsamples = 14\nvalue = [13, 1]"] ;
206 -> 208 ;
209 [label="gini = 0.0\nsamples = 25\nvalue = [25, 0]"] ;
205 -> 209 ;
210 [label="gini = 0.245\nsamples = 14\nvalue = [12, 2]"] ;
202 -> 210 ;
211 [label="X[5] <= 0.5\ngini = 0.122\nsamples = 46\nvalue = [43, 3]"] ;
195 -> 211 ;
212 [label="gini = 0.0\nsamples = 25\nvalue = [25, 0]"] ;
211 -> 212 ;
213 [label="gini = 0.245\nsamples = 21\nvalue = [18, 3]"] ;
211 -> 213 ;
214 [label="X[5] <= 0.5\ngini = 0.165\nsamples = 22\nvalue = [20, 2]"] ;
194 -> 214 ;
215 [label="gini = 0.153\nsamples = 12\nvalue = [11, 1]"] ;
214 -> 215 ;
216 [label="gini = 0.18\nsamples = 10\nvalue = [9, 1]"] ;
214 -> 216 ;
217 [label="gini = 0.0\nsamples = 41\nvalue = [41, 0]"] ;
193 -> 217 ;
218 [label="gini = 0.245\nsamples = 14\nvalue = [12, 2]"] ;
192 -> 218 ;
219 [label="X[3] <= 0.5\ngini = 0.215\nsamples = 49\nvalue = [43, 6]"] ;
191 -> 219 ;
220 [label="gini = 0.0\nsamples = 22\nvalue = [22, 0]"] ;
219 -> 220 ;
221 [label="X[6] <= 32.5\ngini = 0.346\nsamples = 27\nvalue = [21, 6]"] ;
219 -> 221 ;
222 [label="gini = 0.391\nsamples = 15\nvalue = [11, 4]"] ;
221 -> 222 ;
223 [label="gini = 0.278\nsamples = 12\nvalue = [10, 2]"] ;
221 -> 223 ;
224 [label="X[5] <= 0.5\ngini = 0.024\nsamples = 164\nvalue = [162, 2]"] ;
190 -> 224 ;
225 [label="gini = 0.0\nsamples = 82\nvalue = [82, 0]"] ;
224 -> 225 ;
226 [label="X[3] <= 0.5\ngini = 0.048\nsamples = 82\nvalue = [80, 2]"] ;
224 -> 226 ;
227 [label="gini = 0.0\nsamples = 30\nvalue = [30, 0]"] ;
226 -> 227 ;
228 [label="X[6] <= 35.5\ngini = 0.074\nsamples = 52\nvalue = [50, 2]"] ;
226 -> 228 ;
229 [label="gini = 0.0\nsamples = 19\nvalue = [19, 0]"] ;
228 -> 229 ;
230 [label="X[6] <= 39.5\ngini = 0.114\nsamples = 33\nvalue = [31, 2]"] ;
228 -> 230 ;
231 [label="gini = 0.18\nsamples = 20\nvalue = [18, 2]"] ;
230 -> 231 ;
232 [label="gini = 0.0\nsamples = 13\nvalue = [13, 0]"] ;
230 -> 232 ;
233 [label="X[7] <= 0.5\ngini = 0.371\nsamples = 1278\nvalue = [963, 315]"] ;
1 -> 233 ;
234 [label="X[0] <= 0.5\ngini = 0.495\nsamples = 521\nvalue = [287, 234]"] ;
233 -> 234 ;
235 [label="X[8] <= 7.5\ngini = 0.5\nsamples = 459\nvalue = [226, 233]"] ;
234 -> 235 ;
236 [label="X[6] <= 22.5\ngini = 0.464\nsamples = 216\nvalue = [137, 79]"] ;
235 -> 236 ;
237 [label="X[6] <= 20.5\ngini = 0.465\nsamples = 49\nvalue = [18, 31]"] ;
236 -> 237 ;
238 [label="X[6] <= 18.5\ngini = 0.498\nsamples = 30\nvalue = [14, 16]"] ;
237 -> 238 ;
239 [label="gini = 0.473\nsamples = 13\nvalue = [5, 8]"] ;
238 -> 239 ;
240 [label="gini = 0.498\nsamples = 17\nvalue = [9, 8]"] ;
238 -> 240 ;
241 [label="gini = 0.332\nsamples = 19\nvalue = [4, 15]"] ;
237 -> 241 ;
242 [label="X[5] <= 0.5\ngini = 0.41\nsamples = 167\nvalue = [119, 48]"] ;
236 -> 242 ;
243 [label="X[6] <= 35.5\ngini = 0.301\nsamples = 76\nvalue = [62, 14]"] ;
242 -> 243 ;
244 [label="X[6] <= 27.5\ngini = 0.346\nsamples = 54\nvalue = [42, 12]"] ;
243 -> 244 ;
245 [label="gini = 0.245\nsamples = 21\nvalue = [18, 3]"] ;
244 -> 245 ;
246 [label="X[6] <= 31.5\ngini = 0.397\nsamples = 33\nvalue = [24, 9]"] ;
244 -> 246 ;
247 [label="X[6] <= 29.5\ngini = 0.423\nsamples = 23\nvalue = [16, 7]"] ;
246 -> 247 ;
248 [label="gini = 0.397\nsamples = 11\nvalue = [8, 3]"] ;
247 -> 248 ;
249 [label="gini = 0.444\nsamples = 12\nvalue = [8, 4]"] ;
247 -> 249 ;
250 [label="gini = 0.32\nsamples = 10\nvalue = [8, 2]"] ;
246 -> 250 ;
251 [label="X[6] <= 43.0\ngini = 0.165\nsamples = 22\nvalue = [20, 2]"] ;
243 -> 251 ;
252 [label="gini = 0.0\nsamples = 12\nvalue = [12, 0]"] ;
251 -> 252 ;
253 [label="gini = 0.32\nsamples = 10\nvalue = [8, 2]"] ;
251 -> 253 ;
254 [label="X[6] <= 30.5\ngini = 0.468\nsamples = 91\nvalue = [57, 34]"] ;
242 -> 254 ;
255 [label="X[6] <= 27.5\ngini = 0.499\nsamples = 55\nvalue = [29, 26]"] ;
254 -> 255 ;
256 [label="X[6] <= 25.5\ngini = 0.458\nsamples = 31\nvalue = [20, 11]"] ;
255 -> 256 ;
257 [label="gini = 0.499\nsamples = 21\nvalue = [11, 10]"] ;
256 -> 257 ;
258 [label="gini = 0.18\nsamples = 10\nvalue = [9, 1]"] ;
256 -> 258 ;
259 [label="gini = 0.469\nsamples = 24\nvalue = [9, 15]"] ;
255 -> 259 ;
260 [label="X[6] <= 38.5\ngini = 0.346\nsamples = 36\nvalue = [28, 8]"] ;
254 -> 260 ;
261 [label="X[6] <= 34.5\ngini = 0.403\nsamples = 25\nvalue = [18, 7]"] ;
260 -> 261 ;
262 [label="gini = 0.337\nsamples = 14\nvalue = [11, 3]"] ;
261 -> 262 ;
263 [label="gini = 0.463\nsamples = 11\nvalue = [7, 4]"] ;
261 -> 263 ;
264 [label="gini = 0.165\nsamples = 11\nvalue = [10, 1]"] ;
260 -> 264 ;
265 [label="X[6] <= 26.5\ngini = 0.464\nsamples = 243\nvalue = [89, 154]"] ;
235 -> 265 ;
266 [label="X[6] <= 24.5\ngini = 0.377\nsamples = 115\nvalue = [29, 86]"] ;
265 -> 266 ;
267 [label="X[4] <= 0.5\ngini = 0.422\nsamples = 96\nvalue = [29, 67]"] ;
266 -> 267 ;
268 [label="X[6] <= 18.5\ngini = 0.39\nsamples = 79\nvalue = [21, 58]"] ;
267 -> 268 ;
269 [label="gini = 0.208\nsamples = 17\nvalue = [2, 15]"] ;
268 -> 269 ;
270 [label="X[6] <= 22.5\ngini = 0.425\nsamples = 62\nvalue = [19, 43]"] ;
268 -> 270 ;
271 [label="X[6] <= 21.5\ngini = 0.46\nsamples = 39\nvalue = [14, 25]"] ;
270 -> 271 ;
272 [label="X[6] <= 19.5\ngini = 0.408\nsamples = 28\nvalue = [8, 20]"] ;
271 -> 272 ;
273 [label="gini = 0.408\nsamples = 14\nvalue = [4, 10]"] ;
272 -> 273 ;
274 [label="gini = 0.408\nsamples = 14\nvalue = [4, 10]"] ;
272 -> 274 ;
275 [label="gini = 0.496\nsamples = 11\nvalue = [6, 5]"] ;
271 -> 275 ;
276 [label="X[5] <= 0.5\ngini = 0.34\nsamples = 23\nvalue = [5, 18]"] ;
270 -> 276 ;
277 [label="gini = 0.397\nsamples = 11\nvalue = [3, 8]"] ;
276 -> 277 ;
278 [label="gini = 0.278\nsamples = 12\nvalue = [2, 10]"] ;
276 -> 278 ;
279 [label="gini = 0.498\nsamples = 17\nvalue = [8, 9]"] ;
267 -> 279 ;
280 [label="gini = 0.0\nsamples = 19\nvalue = [0, 19]"] ;
266 -> 280 ;
281 [label="X[1] <= 0.5\ngini = 0.498\nsamples = 128\nvalue = [60, 68]"] ;
265 -> 281 ;
282 [label="X[5] <= 0.5\ngini = 0.5\nsamples = 118\nvalue = [58, 60]"] ;
281 -> 282 ;
283 [label="X[6] <= 36.5\ngini = 0.49\nsamples = 63\nvalue = [36, 27]"] ;
282 -> 283 ;
284 [label="X[2] <= 0.5\ngini = 0.497\nsamples = 52\nvalue = [28, 24]"] ;
283 -> 284 ;
285 [label="X[4] <= 0.5\ngini = 0.49\nsamples = 42\nvalue = [24, 18]"] ;
284 -> 285 ;
286 [label="X[6] <= 30.5\ngini = 0.5\nsamples = 24\nvalue = [12, 12]"] ;
285 -> 286 ;
287 [label="gini = 0.5\nsamples = 14\nvalue = [7, 7]"] ;
286 -> 287 ;
288 [label="gini = 0.5\nsamples = 10\nvalue = [5, 5]"] ;
286 -> 288 ;
289 [label="gini = 0.444\nsamples = 18\nvalue = [12, 6]"] ;
285 -> 289 ;
290 [label="gini = 0.48\nsamples = 10\nvalue = [4, 6]"] ;
284 -> 290 ;
291 [label="gini = 0.397\nsamples = 11\nvalue = [8, 3]"] ;
283 -> 291 ;
292 [label="X[6] <= 33.5\ngini = 0.48\nsamples = 55\nvalue = [22, 33]"] ;
282 -> 292 ;
293 [label="X[6] <= 30.5\ngini = 0.4\nsamples = 29\nvalue = [8, 21]"] ;
292 -> 293 ;
294 [label="gini = 0.444\nsamples = 15\nvalue = [5, 10]"] ;
293 -> 294 ;
295 [label="gini = 0.337\nsamples = 14\nvalue = [3, 11]"] ;
293 -> 295 ;
296 [label="X[6] <= 38.5\ngini = 0.497\nsamples = 26\nvalue = [14, 12]"] ;
292 -> 296 ;
297 [label="gini = 0.5\nsamples = 16\nvalue = [8, 8]"] ;
296 -> 297 ;
298 [label="gini = 0.48\nsamples = 10\nvalue = [6, 4]"] ;
296 -> 298 ;
299 [label="gini = 0.32\nsamples = 10\nvalue = [2, 8]"] ;
281 -> 299 ;
300 [label="X[8] <= 7.5\ngini = 0.032\nsamples = 62\nvalue = [61, 1]"] ;
234 -> 300 ;
301 [label="gini = 0.0\nsamples = 41\nvalue = [41, 0]"] ;
300 -> 301 ;
302 [label="X[6] <= 30.5\ngini = 0.091\nsamples = 21\nvalue = [20, 1]"] ;
300 -> 302 ;
303 [label="gini = 0.18\nsamples = 10\nvalue = [9, 1]"] ;
302 -> 303 ;
304 [label="gini = 0.0\nsamples = 11\nvalue = [11, 0]"] ;
302 -> 304 ;
305 [label="X[0] <= 0.5\ngini = 0.191\nsamples = 757\nvalue = [676, 81]"] ;
233 -> 305 ;
306 [label="X[6] <= 18.5\ngini = 0.236\nsamples = 579\nvalue = [500, 79]"] ;
305 -> 306 ;
307 [label="X[8] <= 7.5\ngini = 0.444\nsamples = 33\nvalue = [22, 11]"] ;
306 -> 307 ;
308 [label="gini = 0.363\nsamples = 21\nvalue = [16, 5]"] ;
307 -> 308 ;
309 [label="gini = 0.5\nsamples = 12\nvalue = [6, 6]"] ;
307 -> 309 ;
310 [label="X[6] <= 36.5\ngini = 0.218\nsamples = 546\nvalue = [478, 68]"] ;
306 -> 310 ;
311 [label="X[4] <= 0.5\ngini = 0.252\nsamples = 412\nvalue = [351, 61]"] ;
310 -> 311 ;
312 [label="X[6] <= 23.5\ngini = 0.232\nsamples = 329\nvalue = [285, 44]"] ;
311 -> 312 ;
313 [label="X[6] <= 19.5\ngini = 0.299\nsamples = 71\nvalue = [58, 13]"] ;
312 -> 313 ;
314 [label="gini = 0.124\nsamples = 15\nvalue = [14, 1]"] ;
313 -> 314 ;
315 [label="X[8] <= 7.5\ngini = 0.337\nsamples = 56\nvalue = [44, 12]"] ;
313 -> 315 ;
316 [label="X[6] <= 21.5\ngini = 0.238\nsamples = 29\nvalue = [25, 4]"] ;
315 -> 316 ;
317 [label="gini = 0.165\nsamples = 11\nvalue = [10, 1]"] ;
316 -> 317 ;
318 [label="gini = 0.278\nsamples = 18\nvalue = [15, 3]"] ;
316 -> 318 ;
319 [label="X[6] <= 21.5\ngini = 0.417\nsamples = 27\nvalue = [19, 8]"] ;
315 -> 319 ;
320 [label="gini = 0.426\nsamples = 13\nvalue = [9, 4]"] ;
319 -> 320 ;
321 [label="gini = 0.408\nsamples = 14\nvalue = [10, 4]"] ;
319 -> 321 ;
322 [label="X[6] <= 24.5\ngini = 0.211\nsamples = 258\nvalue = [227, 31]"] ;
312 -> 322 ;
323 [label="gini = 0.0\nsamples = 15\nvalue = [15, 0]"] ;
322 -> 323 ;
324 [label="X[6] <= 26.5\ngini = 0.223\nsamples = 243\nvalue = [212, 31]"] ;
322 -> 324 ;
325 [label="X[8] <= 7.5\ngini = 0.308\nsamples = 42\nvalue = [34, 8]"] ;
324 -> 325 ;
326 [label="X[6] <= 25.5\ngini = 0.219\nsamples = 24\nvalue = [21, 3]"] ;
325 -> 326 ;
327 [label="gini = 0.26\nsamples = 13\nvalue = [11, 2]"] ;
326 -> 327 ;
328 [label="gini = 0.165\nsamples = 11\nvalue = [10, 1]"] ;
326 -> 328 ;
329 [label="gini = 0.401\nsamples = 18\nvalue = [13, 5]"] ;
325 -> 329 ;
330 [label="X[2] <= 0.5\ngini = 0.203\nsamples = 201\nvalue = [178, 23]"] ;
324 -> 330 ;
331 [label="X[6] <= 31.5\ngini = 0.186\nsamples = 154\nvalue = [138, 16]"] ;
330 -> 331 ;
332 [label="X[8] <= 7.5\ngini = 0.15\nsamples = 86\nvalue = [79, 7]"] ;
331 -> 332 ;
333 [label="X[6] <= 28.5\ngini = 0.214\nsamples = 41\nvalue = [36, 5]"] ;
332 -> 333 ;
334 [label="gini = 0.266\nsamples = 19\nvalue = [16, 3]"] ;
333 -> 334 ;
335 [label="gini = 0.165\nsamples = 22\nvalue = [20, 2]"] ;
333 -> 335 ;
336 [label="X[5] <= 0.5\ngini = 0.085\nsamples = 45\nvalue = [43, 2]"] ;
332 -> 336 ;
337 [label="gini = 0.0\nsamples = 18\nvalue = [18, 0]"] ;
336 -> 337 ;
338 [label="X[6] <= 29.5\ngini = 0.137\nsamples = 27\nvalue = [25, 2]"] ;
336 -> 338 ;
339 [label="gini = 0.117\nsamples = 16\nvalue = [15, 1]"] ;
338 -> 339 ;
340 [label="gini = 0.165\nsamples = 11\nvalue = [10, 1]"] ;
338 -> 340 ;
341 [label="X[8] <= 7.5\ngini = 0.23\nsamples = 68\nvalue = [59, 9]"] ;
331 -> 341 ;
342 [label="X[6] <= 34.5\ngini = 0.188\nsamples = 38\nvalue = [34, 4]"] ;
341 -> 342 ;
343 [label="X[5] <= 0.5\ngini = 0.137\nsamples = 27\nvalue = [25, 2]"] ;
342 -> 343 ;
344 [label="gini = 0.153\nsamples = 12\nvalue = [11, 1]"] ;
343 -> 344 ;
345 [label="gini = 0.124\nsamples = 15\nvalue = [14, 1]"] ;
343 -> 345 ;
346 [label="gini = 0.298\nsamples = 11\nvalue = [9, 2]"] ;
342 -> 346 ;
347 [label="X[6] <= 34.5\ngini = 0.278\nsamples = 30\nvalue = [25, 5]"] ;
341 -> 347 ;
348 [label="gini = 0.305\nsamples = 16\nvalue = [13, 3]"] ;
347 -> 348 ;
349 [label="gini = 0.245\nsamples = 14\nvalue = [12, 2]"] ;
347 -> 349 ;
350 [label="X[6] <= 29.5\ngini = 0.254\nsamples = 47\nvalue = [40, 7]"] ;
330 -> 350 ;
351 [label="gini = 0.153\nsamples = 12\nvalue = [11, 1]"] ;
350 -> 351 ;
352 [label="X[6] <= 33.5\ngini = 0.284\nsamples = 35\nvalue = [29, 6]"] ;
350 -> 352 ;
353 [label="X[8] <= 7.5\ngini = 0.34\nsamples = 23\nvalue = [18, 5]"] ;
352 -> 353 ;
354 [label="gini = 0.397\nsamples = 11\nvalue = [8, 3]"] ;
353 -> 354 ;
355 [label="gini = 0.278\nsamples = 12\nvalue = [10, 2]"] ;
353 -> 355 ;
356 [label="gini = 0.153\nsamples = 12\nvalue = [11, 1]"] ;
352 -> 356 ;
357 [label="X[8] <= 7.5\ngini = 0.326\nsamples = 83\nvalue = [66, 17]"] ;
311 -> 357 ;
358 [label="X[2] <= 0.5\ngini = 0.245\nsamples = 42\nvalue = [36, 6]"] ;
357 -> 358 ;
359 [label="X[6] <= 28.5\ngini = 0.121\nsamples = 31\nvalue = [29, 2]"] ;
358 -> 359 ;
360 [label="gini = 0.0\nsamples = 15\nvalue = [15, 0]"] ;
359 -> 360 ;
361 [label="gini = 0.219\nsamples = 16\nvalue = [14, 2]"] ;
359 -> 361 ;
362 [label="gini = 0.463\nsamples = 11\nvalue = [7, 4]"] ;
358 -> 362 ;
363 [label="X[6] <= 28.5\ngini = 0.393\nsamples = 41\nvalue = [30, 11]"] ;
357 -> 363 ;
364 [label="X[6] <= 24.5\ngini = 0.454\nsamples = 23\nvalue = [15, 8]"] ;
363 -> 364 ;
365 [label="gini = 0.278\nsamples = 12\nvalue = [10, 2]"] ;
364 -> 365 ;
366 [label="gini = 0.496\nsamples = 11\nvalue = [5, 6]"] ;
364 -> 366 ;
367 [label="gini = 0.278\nsamples = 18\nvalue = [15, 3]"] ;
363 -> 367 ;
368 [label="X[5] <= 0.5\ngini = 0.099\nsamples = 134\nvalue = [127, 7]"] ;
310 -> 368 ;
369 [label="X[3] <= 0.5\ngini = 0.054\nsamples = 72\nvalue = [70, 2]"] ;
368 -> 369 ;
370 [label="gini = 0.0\nsamples = 21\nvalue = [21, 0]"] ;
369 -> 370 ;
371 [label="X[6] <= 43.5\ngini = 0.075\nsamples = 51\nvalue = [49, 2]"] ;
369 -> 371 ;
372 [label="X[6] <= 38.5\ngini = 0.108\nsamples = 35\nvalue = [33, 2]"] ;
371 -> 372 ;
373 [label="gini = 0.0\nsamples = 14\nvalue = [14, 0]"] ;
372 -> 373 ;
374 [label="gini = 0.172\nsamples = 21\nvalue = [19, 2]"] ;
372 -> 374 ;
375 [label="gini = 0.0\nsamples = 16\nvalue = [16, 0]"] ;
371 -> 375 ;
376 [label="X[3] <= 0.5\ngini = 0.148\nsamples = 62\nvalue = [57, 5]"] ;
368 -> 376 ;
377 [label="gini = 0.32\nsamples = 15\nvalue = [12, 3]"] ;
376 -> 377 ;
378 [label="X[6] <= 41.5\ngini = 0.081\nsamples = 47\nvalue = [45, 2]"] ;
376 -> 378 ;
379 [label="gini = 0.198\nsamples = 18\nvalue = [16, 2]"] ;
378 -> 379 ;
380 [label="gini = 0.0\nsamples = 29\nvalue = [29, 0]"] ;
378 -> 380 ;
381 [label="X[6] <= 27.5\ngini = 0.022\nsamples = 178\nvalue = [176, 2]"] ;
305 -> 381 ;
382 [label="X[8] <= 7.5\ngini = 0.051\nsamples = 76\nvalue = [74, 2]"] ;
381 -> 382 ;
383 [label="gini = 0.0\nsamples = 45\nvalue = [45, 0]"] ;
382 -> 383 ;
384 [label="X[6] <= 22.5\ngini = 0.121\nsamples = 31\nvalue = [29, 2]"] ;
382 -> 384 ;
385 [label="gini = 0.0\nsamples = 14\nvalue = [14, 0]"] ;
384 -> 385 ;
386 [label="gini = 0.208\nsamples = 17\nvalue = [15, 2]"] ;
384 -> 386 ;
387 [label="gini = 0.0\nsamples = 102\nvalue = [102, 0]"] ;
381 -> 387 ;
388 [label="X[8] <= 11.5\ngini = 0.169\nsamples = 7363\nvalue = [688, 6675]"] ;
0 -> 388 [labeldistance=2.5, labelangle=-45, headlabel="False"] ;
389 [label="X[0] <= 0.5\ngini = 0.444\nsamples = 1658\nvalue = [552, 1106]"] ;
388 -> 389 ;
390 [label="X[7] <= 0.5\ngini = 0.387\nsamples = 1489\nvalue = [391, 1098]"] ;
389 -> 390 ;
391 [label="X[6] <= 35.5\ngini = 0.216\nsamples = 868\nvalue = [107, 761]"] ;
390 -> 391 ;
392 [label="X[8] <= 9.5\ngini = 0.183\nsamples = 748\nvalue = [76, 672]"] ;
391 -> 392 ;
393 [label="X[6] <= 28.5\ngini = 0.268\nsamples = 226\nvalue = [36, 190]"] ;
392 -> 393 ;
394 [label="X[6] <= 20.5\ngini = 0.209\nsamples = 169\nvalue = [20, 149]"] ;
393 -> 394 ;
395 [label="X[6] <= 18.5\ngini = 0.146\nsamples = 63\nvalue = [5, 58]"] ;
394 -> 395 ;
396 [label="X[3] <= 0.5\ngini = 0.208\nsamples = 34\nvalue = [4, 30]"] ;
395 -> 396 ;
397 [label="gini = 0.133\nsamples = 14\nvalue = [1, 13]"] ;
396 -> 397 ;
398 [label="gini = 0.255\nsamples = 20\nvalue = [3, 17]"] ;
396 -> 398 ;
399 [label="X[2] <= 0.5\ngini = 0.067\nsamples = 29\nvalue = [1, 28]"] ;
395 -> 399 ;
400 [label="gini = 0.0\nsamples = 19\nvalue = [0, 19]"] ;
399 -> 400 ;
401 [label="gini = 0.18\nsamples = 10\nvalue = [1, 9]"] ;
399 -> 401 ;
402 [label="X[6] <= 21.5\ngini = 0.243\nsamples = 106\nvalue = [15, 91]"] ;
394 -> 402 ;
403 [label="gini = 0.426\nsamples = 13\nvalue = [4, 9]"] ;
402 -> 403 ;
404 [label="X[5] <= 0.5\ngini = 0.209\nsamples = 93\nvalue = [11, 82]"] ;
402 -> 404 ;
405 [label="X[6] <= 23.5\ngini = 0.258\nsamples = 46\nvalue = [7, 39]"] ;
404 -> 405 ;
406 [label="gini = 0.18\nsamples = 20\nvalue = [2, 18]"] ;
405 -> 406 ;
407 [label="X[6] <= 25.5\ngini = 0.311\nsamples = 26\nvalue = [5, 21]"] ;
405 -> 407 ;
408 [label="gini = 0.355\nsamples = 13\nvalue = [3, 10]"] ;
407 -> 408 ;
409 [label="gini = 0.26\nsamples = 13\nvalue = [2, 11]"] ;
407 -> 409 ;
410 [label="X[6] <= 23.5\ngini = 0.156\nsamples = 47\nvalue = [4, 43]"] ;
404 -> 410 ;
411 [label="gini = 0.208\nsamples = 17\nvalue = [2, 15]"] ;
410 -> 411 ;
412 [label="X[6] <= 25.5\ngini = 0.124\nsamples = 30\nvalue = [2, 28]"] ;
410 -> 412 ;
413 [label="gini = 0.0\nsamples = 12\nvalue = [0, 12]"] ;
412 -> 413 ;
414 [label="gini = 0.198\nsamples = 18\nvalue = [2, 16]"] ;
412 -> 414 ;
415 [label="X[4] <= 0.5\ngini = 0.404\nsamples = 57\nvalue = [16, 41]"] ;
393 -> 415 ;
416 [label="X[6] <= 30.5\ngini = 0.359\nsamples = 47\nvalue = [11, 36]"] ;
415 -> 416 ;
417 [label="gini = 0.457\nsamples = 17\nvalue = [6, 11]"] ;
416 -> 417 ;
418 [label="X[3] <= 0.5\ngini = 0.278\nsamples = 30\nvalue = [5, 25]"] ;
416 -> 418 ;
419 [label="gini = 0.153\nsamples = 12\nvalue = [1, 11]"] ;
418 -> 419 ;
420 [label="gini = 0.346\nsamples = 18\nvalue = [4, 14]"] ;
418 -> 420 ;
421 [label="gini = 0.5\nsamples = 10\nvalue = [5, 5]"] ;
415 -> 421 ;
422 [label="X[6] <= 32.5\ngini = 0.142\nsamples = 522\nvalue = [40, 482]"] ;
392 -> 422 ;
423 [label="X[4] <= 0.5\ngini = 0.128\nsamples = 481\nvalue = [33, 448]"] ;
422 -> 423 ;
424 [label="X[8] <= 10.5\ngini = 0.104\nsamples = 382\nvalue = [21, 361]"] ;
423 -> 424 ;
425 [label="X[5] <= 0.5\ngini = 0.149\nsamples = 160\nvalue = [13, 147]"] ;
424 -> 425 ;
426 [label="X[6] <= 22.5\ngini = 0.059\nsamples = 66\nvalue = [2, 64]"] ;
425 -> 426 ;
427 [label="gini = 0.0\nsamples = 25\nvalue = [0, 25]"] ;
426 -> 427 ;
428 [label="X[6] <= 26.5\ngini = 0.093\nsamples = 41\nvalue = [2, 39]"] ;
426 -> 428 ;
429 [label="gini = 0.159\nsamples = 23\nvalue = [2, 21]"] ;
428 -> 429 ;
430 [label="gini = 0.0\nsamples = 18\nvalue = [0, 18]"] ;
428 -> 430 ;
431 [label="X[6] <= 28.5\ngini = 0.207\nsamples = 94\nvalue = [11, 83]"] ;
425 -> 431 ;
432 [label="X[6] <= 26.5\ngini = 0.237\nsamples = 80\nvalue = [11, 69]"] ;
431 -> 432 ;
433 [label="X[6] <= 19.5\ngini = 0.187\nsamples = 67\nvalue = [7, 60]"] ;
432 -> 433 ;
434 [label="gini = 0.266\nsamples = 19\nvalue = [3, 16]"] ;
433 -> 434 ;
435 [label="X[6] <= 23.5\ngini = 0.153\nsamples = 48\nvalue = [4, 44]"] ;
433 -> 435 ;
436 [label="X[6] <= 21.5\ngini = 0.071\nsamples = 27\nvalue = [1, 26]"] ;
435 -> 436 ;
437 [label="gini = 0.0\nsamples = 12\nvalue = [0, 12]"] ;
436 -> 437 ;
438 [label="gini = 0.124\nsamples = 15\nvalue = [1, 14]"] ;
436 -> 438 ;
439 [label="gini = 0.245\nsamples = 21\nvalue = [3, 18]"] ;
435 -> 439 ;
440 [label="gini = 0.426\nsamples = 13\nvalue = [4, 9]"] ;
432 -> 440 ;
441 [label="gini = 0.0\nsamples = 14\nvalue = [0, 14]"] ;
431 -> 441 ;
442 [label="X[6] <= 21.5\ngini = 0.069\nsamples = 222\nvalue = [8, 214]"] ;
424 -> 442 ;
443 [label="X[3] <= 0.5\ngini = 0.123\nsamples = 76\nvalue = [5, 71]"] ;
442 -> 443 ;
444 [label="X[5] <= 0.5\ngini = 0.231\nsamples = 30\nvalue = [4, 26]"] ;
443 -> 444 ;
445 [label="gini = 0.355\nsamples = 13\nvalue = [3, 10]"] ;
444 -> 445 ;
446 [label="gini = 0.111\nsamples = 17\nvalue = [1, 16]"] ;
444 -> 446 ;
447 [label="X[6] <= 18.5\ngini = 0.043\nsamples = 46\nvalue = [1, 45]"] ;
443 -> 447 ;
448 [label="gini = 0.111\nsamples = 17\nvalue = [1, 16]"] ;
447 -> 448 ;
449 [label="gini = 0.0\nsamples = 29\nvalue = [0, 29]"] ;
447 -> 449 ;
450 [label="X[5] <= 0.5\ngini = 0.04\nsamples = 146\nvalue = [3, 143]"] ;
442 -> 450 ;
451 [label="gini = 0.0\nsamples = 60\nvalue = [0, 60]"] ;
450 -> 451 ;
452 [label="X[6] <= 23.5\ngini = 0.067\nsamples = 86\nvalue = [3, 83]"] ;
450 -> 452 ;
453 [label="gini = 0.0\nsamples = 21\nvalue = [0, 21]"] ;
452 -> 453 ;
454 [label="X[6] <= 25.5\ngini = 0.088\nsamples = 65\nvalue = [3, 62]"] ;
452 -> 454 ;
455 [label="gini = 0.172\nsamples = 21\nvalue = [2, 19]"] ;
454 -> 455 ;
456 [label="X[3] <= 0.5\ngini = 0.044\nsamples = 44\nvalue = [1, 43]"] ;
454 -> 456 ;
457 [label="gini = 0.0\nsamples = 25\nvalue = [0, 25]"] ;
456 -> 457 ;
458 [label="gini = 0.1\nsamples = 19\nvalue = [1, 18]"] ;
456 -> 458 ;
459 [label="X[2] <= 0.5\ngini = 0.213\nsamples = 99\nvalue = [12, 87]"] ;
423 -> 459 ;
460 [label="X[6] <= 25.5\ngini = 0.162\nsamples = 79\nvalue = [7, 72]"] ;
459 -> 460 ;
461 [label="X[6] <= 19.5\ngini = 0.049\nsamples = 40\nvalue = [1, 39]"] ;
460 -> 461 ;
462 [label="gini = 0.165\nsamples = 11\nvalue = [1, 10]"] ;
461 -> 462 ;
463 [label="gini = 0.0\nsamples = 29\nvalue = [0, 29]"] ;
461 -> 463 ;
464 [label="X[8] <= 10.5\ngini = 0.26\nsamples = 39\nvalue = [6, 33]"] ;
460 -> 464 ;
465 [label="X[6] <= 28.5\ngini = 0.32\nsamples = 20\nvalue = [4, 16]"] ;
464 -> 465 ;
466 [label="gini = 0.32\nsamples = 10\nvalue = [2, 8]"] ;
465 -> 466 ;
467 [label="gini = 0.32\nsamples = 10\nvalue = [2, 8]"] ;
465 -> 467 ;
468 [label="gini = 0.188\nsamples = 19\nvalue = [2, 17]"] ;
464 -> 468 ;
469 [label="X[6] <= 25.0\ngini = 0.375\nsamples = 20\nvalue = [5, 15]"] ;
459 -> 469 ;
470 [label="gini = 0.42\nsamples = 10\nvalue = [3, 7]"] ;
469 -> 470 ;
471 [label="gini = 0.32\nsamples = 10\nvalue = [2, 8]"] ;
469 -> 471 ;
472 [label="X[6] <= 33.5\ngini = 0.283\nsamples = 41\nvalue = [7, 34]"] ;
422 -> 472 ;
473 [label="gini = 0.391\nsamples = 15\nvalue = [4, 11]"] ;
472 -> 473 ;
474 [label="X[6] <= 34.5\ngini = 0.204\nsamples = 26\nvalue = [3, 23]"] ;
472 -> 474 ;
475 [label="gini = 0.0\nsamples = 11\nvalue = [0, 11]"] ;
474 -> 475 ;
476 [label="gini = 0.32\nsamples = 15\nvalue = [3, 12]"] ;
474 -> 476 ;
477 [label="X[6] <= 42.5\ngini = 0.383\nsamples = 120\nvalue = [31, 89]"] ;
391 -> 477 ;
478 [label="X[8] <= 10.5\ngini = 0.439\nsamples = 86\nvalue = [28, 58]"] ;
477 -> 478 ;
479 [label="X[6] <= 37.5\ngini = 0.47\nsamples = 53\nvalue = [20, 33]"] ;
478 -> 479 ;
480 [label="X[8] <= 9.5\ngini = 0.375\nsamples = 20\nvalue = [5, 15]"] ;
479 -> 480 ;
481 [label="gini = 0.32\nsamples = 10\nvalue = [2, 8]"] ;
480 -> 481 ;
482 [label="gini = 0.42\nsamples = 10\nvalue = [3, 7]"] ;
480 -> 482 ;
483 [label="X[6] <= 39.5\ngini = 0.496\nsamples = 33\nvalue = [15, 18]"] ;
479 -> 483 ;
484 [label="gini = 0.475\nsamples = 18\nvalue = [7, 11]"] ;
483 -> 484 ;
485 [label="gini = 0.498\nsamples = 15\nvalue = [8, 7]"] ;
483 -> 485 ;
486 [label="X[5] <= 0.5\ngini = 0.367\nsamples = 33\nvalue = [8, 25]"] ;
478 -> 486 ;
487 [label="gini = 0.42\nsamples = 20\nvalue = [6, 14]"] ;
486 -> 487 ;
488 [label="gini = 0.26\nsamples = 13\nvalue = [2, 11]"] ;
486 -> 488 ;
489 [label="X[8] <= 10.5\ngini = 0.161\nsamples = 34\nvalue = [3, 31]"] ;
477 -> 489 ;
490 [label="gini = 0.305\nsamples = 16\nvalue = [3, 13]"] ;
489 -> 490 ;
491 [label="gini = 0.0\nsamples = 18\nvalue = [0, 18]"] ;
489 -> 491 ;
492 [label="X[8] <= 9.5\ngini = 0.496\nsamples = 621\nvalue = [284, 337]"] ;
390 -> 492 ;
493 [label="X[6] <= 27.5\ngini = 0.453\nsamples = 242\nvalue = [158, 84]"] ;
492 -> 493 ;
494 [label="X[4] <= 0.5\ngini = 0.491\nsamples = 113\nvalue = [64, 49]"] ;
493 -> 494 ;
495 [label="X[5] <= 0.5\ngini = 0.481\nsamples = 82\nvalue = [49, 33]"] ;
494 -> 495 ;
496 [label="X[6] <= 21.5\ngini = 0.375\nsamples = 28\nvalue = [21, 7]"] ;
495 -> 496 ;
497 [label="gini = 0.444\nsamples = 15\nvalue = [10, 5]"] ;
496 -> 497 ;
498 [label="gini = 0.26\nsamples = 13\nvalue = [11, 2]"] ;
496 -> 498 ;
499 [label="X[6] <= 24.5\ngini = 0.499\nsamples = 54\nvalue = [28, 26]"] ;
495 -> 499 ;
500 [label="X[3] <= 0.5\ngini = 0.485\nsamples = 41\nvalue = [24, 17]"] ;
499 -> 500 ;
501 [label="gini = 0.492\nsamples = 16\nvalue = [7, 9]"] ;
500 -> 501 ;
502 [label="X[6] <= 20.5\ngini = 0.435\nsamples = 25\nvalue = [17, 8]"] ;
500 -> 502 ;
503 [label="gini = 0.408\nsamples = 14\nvalue = [10, 4]"] ;
502 -> 503 ;
504 [label="gini = 0.463\nsamples = 11\nvalue = [7, 4]"] ;
502 -> 504 ;
505 [label="gini = 0.426\nsamples = 13\nvalue = [4, 9]"] ;
499 -> 505 ;
506 [label="X[6] <= 22.5\ngini = 0.499\nsamples = 31\nvalue = [15, 16]"] ;
494 -> 506 ;
507 [label="gini = 0.469\nsamples = 16\nvalue = [6, 10]"] ;
506 -> 507 ;
508 [label="gini = 0.48\nsamples = 15\nvalue = [9, 6]"] ;
506 -> 508 ;
509 [label="X[1] <= 0.5\ngini = 0.395\nsamples = 129\nvalue = [94, 35]"] ;
493 -> 509 ;
510 [label="X[6] <= 40.5\ngini = 0.419\nsamples = 114\nvalue = [80, 34]"] ;
509 -> 510 ;
511 [label="X[6] <= 36.5\ngini = 0.404\nsamples = 96\nvalue = [69, 27]"] ;
510 -> 511 ;
512 [label="X[4] <= 0.5\ngini = 0.432\nsamples = 76\nvalue = [52, 24]"] ;
511 -> 512 ;
513 [label="X[5] <= 0.5\ngini = 0.452\nsamples = 58\nvalue = [38, 20]"] ;
512 -> 513 ;
514 [label="gini = 0.494\nsamples = 18\nvalue = [10, 8]"] ;
513 -> 514 ;
515 [label="X[3] <= 0.5\ngini = 0.42\nsamples = 40\nvalue = [28, 12]"] ;
513 -> 515 ;
516 [label="gini = 0.337\nsamples = 14\nvalue = [11, 3]"] ;
515 -> 516 ;
517 [label="X[6] <= 32.5\ngini = 0.453\nsamples = 26\nvalue = [17, 9]"] ;
515 -> 517 ;
518 [label="gini = 0.492\nsamples = 16\nvalue = [9, 7]"] ;
517 -> 518 ;
519 [label="gini = 0.32\nsamples = 10\nvalue = [8, 2]"] ;
517 -> 519 ;
520 [label="gini = 0.346\nsamples = 18\nvalue = [14, 4]"] ;
512 -> 520 ;
521 [label="gini = 0.255\nsamples = 20\nvalue = [17, 3]"] ;
511 -> 521 ;
522 [label="gini = 0.475\nsamples = 18\nvalue = [11, 7]"] ;
510 -> 522 ;
523 [label="gini = 0.124\nsamples = 15\nvalue = [14, 1]"] ;
509 -> 523 ;
524 [label="X[6] <= 37.5\ngini = 0.444\nsamples = 379\nvalue = [126, 253]"] ;
492 -> 524 ;
525 [label="X[6] <= 22.5\ngini = 0.413\nsamples = 329\nvalue = [96, 233]"] ;
524 -> 525 ;
526 [label="X[6] <= 20.5\ngini = 0.282\nsamples = 106\nvalue = [18, 88]"] ;
525 -> 526 ;
527 [label="X[4] <= 0.5\ngini = 0.337\nsamples = 70\nvalue = [15, 55]"] ;
526 -> 527 ;
528 [label="X[3] <= 0.5\ngini = 0.38\nsamples = 51\nvalue = [13, 38]"] ;
527 -> 528 ;
529 [label="gini = 0.473\nsamples = 13\nvalue = [5, 8]"] ;
528 -> 529 ;
530 [label="X[6] <= 17.5\ngini = 0.332\nsamples = 38\nvalue = [8, 30]"] ;
528 -> 530 ;
531 [label="gini = 0.426\nsamples = 13\nvalue = [4, 9]"] ;
530 -> 531 ;
532 [label="X[5] <= 0.5\ngini = 0.269\nsamples = 25\nvalue = [4, 21]"] ;
530 -> 532 ;
533 [label="gini = 0.337\nsamples = 14\nvalue = [3, 11]"] ;
532 -> 533 ;
534 [label="gini = 0.165\nsamples = 11\nvalue = [1, 10]"] ;
532 -> 534 ;
535 [label="gini = 0.188\nsamples = 19\nvalue = [2, 17]"] ;
527 -> 535 ;
536 [label="X[8] <= 10.5\ngini = 0.153\nsamples = 36\nvalue = [3, 33]"] ;
526 -> 536 ;
537 [label="gini = 0.1\nsamples = 19\nvalue = [1, 18]"] ;
536 -> 537 ;
538 [label="gini = 0.208\nsamples = 17\nvalue = [2, 15]"] ;
536 -> 538 ;
539 [label="X[6] <= 31.5\ngini = 0.455\nsamples = 223\nvalue = [78, 145]"] ;
525 -> 539 ;
540 [label="X[8] <= 10.5\ngini = 0.482\nsamples = 165\nvalue = [67, 98]"] ;
539 -> 540 ;
541 [label="X[2] <= 0.5\ngini = 0.5\nsamples = 85\nvalue = [43, 42]"] ;
540 -> 541 ;
542 [label="X[6] <= 24.5\ngini = 0.493\nsamples = 59\nvalue = [33, 26]"] ;
541 -> 542 ;
543 [label="gini = 0.49\nsamples = 14\nvalue = [6, 8]"] ;
542 -> 543 ;
544 [label="X[5] <= 0.5\ngini = 0.48\nsamples = 45\nvalue = [27, 18]"] ;
542 -> 544 ;
545 [label="X[6] <= 29.5\ngini = 0.496\nsamples = 22\nvalue = [12, 10]"] ;
544 -> 545 ;
546 [label="gini = 0.486\nsamples = 12\nvalue = [7, 5]"] ;
545 -> 546 ;
547 [label="gini = 0.5\nsamples = 10\nvalue = [5, 5]"] ;
545 -> 547 ;
548 [label="X[6] <= 27.5\ngini = 0.454\nsamples = 23\nvalue = [15, 8]"] ;
544 -> 548 ;
549 [label="gini = 0.496\nsamples = 11\nvalue = [6, 5]"] ;
548 -> 549 ;
550 [label="gini = 0.375\nsamples = 12\nvalue = [9, 3]"] ;
548 -> 550 ;
551 [label="X[6] <= 26.0\ngini = 0.473\nsamples = 26\nvalue = [10, 16]"] ;
541 -> 551 ;
552 [label="gini = 0.496\nsamples = 11\nvalue = [6, 5]"] ;
551 -> 552 ;
553 [label="gini = 0.391\nsamples = 15\nvalue = [4, 11]"] ;
551 -> 553 ;
554 [label="X[3] <= 0.5\ngini = 0.42\nsamples = 80\nvalue = [24, 56]"] ;
540 -> 554 ;
555 [label="X[6] <= 28.5\ngini = 0.26\nsamples = 26\nvalue = [4, 22]"] ;
554 -> 555 ;
556 [label="gini = 0.305\nsamples = 16\nvalue = [3, 13]"] ;
555 -> 556 ;
557 [label="gini = 0.18\nsamples = 10\nvalue = [1, 9]"] ;
555 -> 557 ;
558 [label="X[6] <= 28.5\ngini = 0.466\nsamples = 54\nvalue = [20, 34]"] ;
554 -> 558 ;
559 [label="X[6] <= 25.5\ngini = 0.45\nsamples = 41\nvalue = [14, 27]"] ;
558 -> 559 ;
560 [label="X[5] <= 0.5\ngini = 0.486\nsamples = 24\nvalue = [10, 14]"] ;
559 -> 560 ;
561 [label="gini = 0.5\nsamples = 10\nvalue = [5, 5]"] ;
560 -> 561 ;
562 [label="gini = 0.459\nsamples = 14\nvalue = [5, 9]"] ;
560 -> 562 ;
563 [label="gini = 0.36\nsamples = 17\nvalue = [4, 13]"] ;
559 -> 563 ;
564 [label="gini = 0.497\nsamples = 13\nvalue = [6, 7]"] ;
558 -> 564 ;
565 [label="X[6] <= 33.5\ngini = 0.307\nsamples = 58\nvalue = [11, 47]"] ;
539 -> 565 ;
566 [label="gini = 0.1\nsamples = 19\nvalue = [1, 18]"] ;
565 -> 566 ;
567 [label="X[4] <= 0.5\ngini = 0.381\nsamples = 39\nvalue = [10, 29]"] ;
565 -> 567 ;
568 [label="X[6] <= 34.5\ngini = 0.428\nsamples = 29\nvalue = [9, 20]"] ;
567 -> 568 ;
569 [label="gini = 0.355\nsamples = 13\nvalue = [3, 10]"] ;
568 -> 569 ;
570 [label="gini = 0.469\nsamples = 16\nvalue = [6, 10]"] ;
568 -> 570 ;
571 [label="gini = 0.18\nsamples = 10\nvalue = [1, 9]"] ;
567 -> 571 ;
572 [label="X[6] <= 45.5\ngini = 0.48\nsamples = 50\nvalue = [30, 20]"] ;
524 -> 572 ;
573 [label="X[8] <= 10.5\ngini = 0.438\nsamples = 37\nvalue = [25, 12]"] ;
572 -> 573 ;
574 [label="gini = 0.346\nsamples = 18\nvalue = [14, 4]"] ;
573 -> 574 ;
575 [label="gini = 0.488\nsamples = 19\nvalue = [11, 8]"] ;
573 -> 575 ;
576 [label="gini = 0.473\nsamples = 13\nvalue = [5, 8]"] ;
572 -> 576 ;
577 [label="X[7] <= 0.5\ngini = 0.09\nsamples = 169\nvalue = [161, 8]"] ;
389 -> 577 ;
578 [label="X[6] <= 27.5\ngini = 0.236\nsamples = 44\nvalue = [38, 6]"] ;
577 -> 578 ;
579 [label="gini = 0.43\nsamples = 16\nvalue = [11, 5]"] ;
578 -> 579 ;
580 [label="X[6] <= 32.5\ngini = 0.069\nsamples = 28\nvalue = [27, 1]"] ;
578 -> 580 ;
581 [label="gini = 0.18\nsamples = 10\nvalue = [9, 1]"] ;
580 -> 581 ;
582 [label="gini = 0.0\nsamples = 18\nvalue = [18, 0]"] ;
580 -> 582 ;
583 [label="X[6] <= 24.5\ngini = 0.031\nsamples = 125\nvalue = [123, 2]"] ;
577 -> 583 ;
584 [label="X[5] <= 0.5\ngini = 0.093\nsamples = 41\nvalue = [39, 2]"] ;
583 -> 584 ;
585 [label="X[4] <= 0.5\ngini = 0.172\nsamples = 21\nvalue = [19, 2]"] ;
584 -> 585 ;
586 [label="gini = 0.32\nsamples = 10\nvalue = [8, 2]"] ;
585 -> 586 ;
587 [label="gini = 0.0\nsamples = 11\nvalue = [11, 0]"] ;
585 -> 587 ;
588 [label="gini = 0.0\nsamples = 20\nvalue = [20, 0]"] ;
584 -> 588 ;
589 [label="gini = 0.0\nsamples = 84\nvalue = [84, 0]"] ;
583 -> 589 ;
590 [label="X[0] <= 0.5\ngini = 0.047\nsamples = 5705\nvalue = [136, 5569]"] ;
388 -> 590 ;
591 [label="X[8] <= 12.5\ngini = 0.036\nsamples = 5617\nvalue = [103, 5514]"] ;
590 -> 591 ;
592 [label="X[7] <= 0.5\ngini = 0.149\nsamples = 652\nvalue = [53, 599]"] ;
591 -> 592 ;
593 [label="X[6] <= 32.5\ngini = 0.064\nsamples = 454\nvalue = [15, 439]"] ;
592 -> 593 ;
594 [label="X[4] <= 0.5\ngini = 0.036\nsamples = 377\nvalue = [7, 370]"] ;
593 -> 594 ;
595 [label="X[3] <= 0.5\ngini = 0.027\nsamples = 292\nvalue = [4, 288]"] ;
594 -> 595 ;
596 [label="gini = 0.0\nsamples = 95\nvalue = [0, 95]"] ;
595 -> 596 ;
597 [label="X[6] <= 28.5\ngini = 0.04\nsamples = 197\nvalue = [4, 193]"] ;
595 -> 597 ;
598 [label="X[6] <= 19.5\ngini = 0.025\nsamples = 155\nvalue = [2, 153]"] ;
597 -> 598 ;
599 [label="gini = 0.091\nsamples = 21\nvalue = [1, 20]"] ;
598 -> 599 ;
600 [label="X[6] <= 24.5\ngini = 0.015\nsamples = 134\nvalue = [1, 133]"] ;
598 -> 600 ;
601 [label="gini = 0.0\nsamples = 75\nvalue = [0, 75]"] ;
600 -> 601 ;
602 [label="X[6] <= 25.5\ngini = 0.033\nsamples = 59\nvalue = [1, 58]"] ;
600 -> 602 ;
603 [label="gini = 0.087\nsamples = 22\nvalue = [1, 21]"] ;
602 -> 603 ;
604 [label="gini = 0.0\nsamples = 37\nvalue = [0, 37]"] ;
602 -> 604 ;
605 [label="X[6] <= 30.5\ngini = 0.091\nsamples = 42\nvalue = [2, 40]"] ;
597 -> 605 ;
606 [label="X[5] <= 0.5\ngini = 0.071\nsamples = 27\nvalue = [1, 26]"] ;
605 -> 606 ;
607 [label="gini = 0.18\nsamples = 10\nvalue = [1, 9]"] ;
606 -> 607 ;
608 [label="gini = 0.0\nsamples = 17\nvalue = [0, 17]"] ;
606 -> 608 ;
609 [label="gini = 0.124\nsamples = 15\nvalue = [1, 14]"] ;
605 -> 609 ;
610 [label="X[6] <= 26.5\ngini = 0.068\nsamples = 85\nvalue = [3, 82]"] ;
594 -> 610 ;
611 [label="X[6] <= 20.5\ngini = 0.095\nsamples = 60\nvalue = [3, 57]"] ;
610 -> 611 ;
612 [label="gini = 0.0\nsamples = 23\nvalue = [0, 23]"] ;
611 -> 612 ;
613 [label="X[6] <= 22.5\ngini = 0.149\nsamples = 37\nvalue = [3, 34]"] ;
611 -> 613 ;
614 [label="gini = 0.26\nsamples = 13\nvalue = [2, 11]"] ;
613 -> 614 ;
615 [label="X[6] <= 24.5\ngini = 0.08\nsamples = 24\nvalue = [1, 23]"] ;
613 -> 615 ;
616 [label="gini = 0.0\nsamples = 14\nvalue = [0, 14]"] ;
615 -> 616 ;
617 [label="gini = 0.18\nsamples = 10\nvalue = [1, 9]"] ;
615 -> 617 ;
618 [label="gini = 0.0\nsamples = 25\nvalue = [0, 25]"] ;
610 -> 618 ;
619 [label="X[3] <= 0.5\ngini = 0.186\nsamples = 77\nvalue = [8, 69]"] ;
593 -> 619 ;
620 [label="gini = 0.0\nsamples = 21\nvalue = [0, 21]"] ;
619 -> 620 ;
621 [label="X[6] <= 35.5\ngini = 0.245\nsamples = 56\nvalue = [8, 48]"] ;
619 -> 621 ;
622 [label="X[5] <= 0.5\ngini = 0.34\nsamples = 23\nvalue = [5, 18]"] ;
621 -> 622 ;
623 [label="gini = 0.278\nsamples = 12\nvalue = [2, 10]"] ;
622 -> 623 ;
624 [label="gini = 0.397\nsamples = 11\nvalue = [3, 8]"] ;
622 -> 624 ;
625 [label="X[6] <= 38.5\ngini = 0.165\nsamples = 33\nvalue = [3, 30]"] ;
621 -> 625 ;
626 [label="gini = 0.0\nsamples = 15\nvalue = [0, 15]"] ;
625 -> 626 ;
627 [label="gini = 0.278\nsamples = 18\nvalue = [3, 15]"] ;
625 -> 627 ;
628 [label="X[6] <= 20.5\ngini = 0.31\nsamples = 198\nvalue = [38, 160]"] ;
592 -> 628 ;
629 [label="X[2] <= 0.5\ngini = 0.048\nsamples = 41\nvalue = [1, 40]"] ;
628 -> 629 ;
630 [label="gini = 0.0\nsamples = 30\nvalue = [0, 30]"] ;
629 -> 630 ;
631 [label="gini = 0.165\nsamples = 11\nvalue = [1, 10]"] ;
629 -> 631 ;
632 [label="X[2] <= 0.5\ngini = 0.36\nsamples = 157\nvalue = [37, 120]"] ;
628 -> 632 ;
633 [label="X[6] <= 36.5\ngini = 0.397\nsamples = 121\nvalue = [33, 88]"] ;
632 -> 633 ;
634 [label="X[6] <= 28.5\ngini = 0.367\nsamples = 99\nvalue = [24, 75]"] ;
633 -> 634 ;
635 [label="X[6] <= 22.5\ngini = 0.342\nsamples = 64\nvalue = [14, 50]"] ;
634 -> 635 ;
636 [label="gini = 0.426\nsamples = 13\nvalue = [4, 9]"] ;
635 -> 636 ;
637 [label="X[6] <= 24.5\ngini = 0.315\nsamples = 51\nvalue = [10, 41]"] ;
635 -> 637 ;
638 [label="X[5] <= 0.5\ngini = 0.269\nsamples = 25\nvalue = [4, 21]"] ;
637 -> 638 ;
639 [label="gini = 0.165\nsamples = 11\nvalue = [1, 10]"] ;
638 -> 639 ;
640 [label="gini = 0.337\nsamples = 14\nvalue = [3, 11]"] ;
638 -> 640 ;
641 [label="X[6] <= 26.5\ngini = 0.355\nsamples = 26\nvalue = [6, 20]"] ;
637 -> 641 ;
642 [label="gini = 0.444\nsamples = 12\nvalue = [4, 8]"] ;
641 -> 642 ;
643 [label="gini = 0.245\nsamples = 14\nvalue = [2, 12]"] ;
641 -> 643 ;
644 [label="X[5] <= 0.5\ngini = 0.408\nsamples = 35\nvalue = [10, 25]"] ;
634 -> 644 ;
645 [label="gini = 0.469\nsamples = 16\nvalue = [6, 10]"] ;
644 -> 645 ;
646 [label="gini = 0.332\nsamples = 19\nvalue = [4, 15]"] ;
644 -> 646 ;
647 [label="X[6] <= 38.5\ngini = 0.483\nsamples = 22\nvalue = [9, 13]"] ;
633 -> 647 ;
648 [label="gini = 0.5\nsamples = 10\nvalue = [5, 5]"] ;
647 -> 648 ;
649 [label="gini = 0.444\nsamples = 12\nvalue = [4, 8]"] ;
647 -> 649 ;
650 [label="X[5] <= 0.5\ngini = 0.198\nsamples = 36\nvalue = [4, 32]"] ;
632 -> 650 ;
651 [label="X[6] <= 28.0\ngini = 0.087\nsamples = 22\nvalue = [1, 21]"] ;
650 -> 651 ;
652 [label="gini = 0.165\nsamples = 11\nvalue = [1, 10]"] ;
651 -> 652 ;
653 [label="gini = 0.0\nsamples = 11\nvalue = [0, 11]"] ;
651 -> 653 ;
654 [label="gini = 0.337\nsamples = 14\nvalue = [3, 11]"] ;
650 -> 654 ;
655 [label="X[6] <= 51.5\ngini = 0.02\nsamples = 4965\nvalue = [50, 4915]"] ;
591 -> 655 ;
656 [label="X[8] <= 13.5\ngini = 0.019\nsamples = 4952\nvalue = [47, 4905]"] ;
655 -> 656 ;
657 [label="X[7] <= 0.5\ngini = 0.067\nsamples = 689\nvalue = [24, 665]"] ;
656 -> 657 ;
658 [label="X[6] <= 27.5\ngini = 0.027\nsamples = 509\nvalue = [7, 502]"] ;
657 -> 658 ;
659 [label="X[1] <= 0.5\ngini = 0.006\nsamples = 309\nvalue = [1, 308]"] ;
658 -> 659 ;
660 [label="gini = 0.0\nsamples = 278\nvalue = [0, 278]"] ;
659 -> 660 ;
661 [label="X[6] <= 19.5\ngini = 0.062\nsamples = 31\nvalue = [1, 30]"] ;
659 -> 661 ;
662 [label="gini = 0.142\nsamples = 13\nvalue = [1, 12]"] ;
661 -> 662 ;
663 [label="gini = 0.0\nsamples = 18\nvalue = [0, 18]"] ;
661 -> 663 ;
664 [label="X[6] <= 28.5\ngini = 0.058\nsamples = 200\nvalue = [6, 194]"] ;
658 -> 664 ;
665 [label="X[5] <= 0.5\ngini = 0.219\nsamples = 24\nvalue = [3, 21]"] ;
664 -> 665 ;
666 [label="gini = 0.133\nsamples = 14\nvalue = [1, 13]"] ;
665 -> 666 ;
667 [label="gini = 0.32\nsamples = 10\nvalue = [2, 8]"] ;
665 -> 667 ;
668 [label="X[6] <= 41.5\ngini = 0.034\nsamples = 176\nvalue = [3, 173]"] ;
664 -> 668 ;
669 [label="X[6] <= 29.5\ngini = 0.024\nsamples = 166\nvalue = [2, 164]"] ;
668 -> 669 ;
670 [label="X[2] <= 0.5\ngini = 0.091\nsamples = 21\nvalue = [1, 20]"] ;
669 -> 670 ;
671 [label="gini = 0.0\nsamples = 11\nvalue = [0, 11]"] ;
670 -> 671 ;
672 [label="gini = 0.18\nsamples = 10\nvalue = [1, 9]"] ;
670 -> 672 ;
673 [label="X[5] <= 0.5\ngini = 0.014\nsamples = 145\nvalue = [1, 144]"] ;
669 -> 673 ;
674 [label="gini = 0.0\nsamples = 77\nvalue = [0, 77]"] ;
673 -> 674 ;
675 [label="X[6] <= 33.5\ngini = 0.029\nsamples = 68\nvalue = [1, 67]"] ;
673 -> 675 ;
676 [label="gini = 0.0\nsamples = 35\nvalue = [0, 35]"] ;
675 -> 676 ;
677 [label="X[6] <= 35.5\ngini = 0.059\nsamples = 33\nvalue = [1, 32]"] ;
675 -> 677 ;
678 [label="gini = 0.18\nsamples = 10\nvalue = [1, 9]"] ;
677 -> 678 ;
679 [label="gini = 0.0\nsamples = 23\nvalue = [0, 23]"] ;
677 -> 679 ;
680 [label="gini = 0.18\nsamples = 10\nvalue = [1, 9]"] ;
668 -> 680 ;
681 [label="X[6] <= 25.5\ngini = 0.171\nsamples = 180\nvalue = [17, 163]"] ;
657 -> 681 ;
682 [label="X[5] <= 0.5\ngini = 0.088\nsamples = 87\nvalue = [4, 83]"] ;
681 -> 682 ;
683 [label="X[6] <= 22.5\ngini = 0.142\nsamples = 39\nvalue = [3, 36]"] ;
682 -> 683 ;
684 [label="X[6] <= 19.5\ngini = 0.083\nsamples = 23\nvalue = [1, 22]"] ;
683 -> 684 ;
685 [label="gini = 0.18\nsamples = 10\nvalue = [1, 9]"] ;
684 -> 685 ;
686 [label="gini = 0.0\nsamples = 13\nvalue = [0, 13]"] ;
684 -> 686 ;
687 [label="gini = 0.219\nsamples = 16\nvalue = [2, 14]"] ;
683 -> 687 ;
688 [label="X[6] <= 18.5\ngini = 0.041\nsamples = 48\nvalue = [1, 47]"] ;
682 -> 688 ;
689 [label="gini = 0.133\nsamples = 14\nvalue = [1, 13]"] ;
688 -> 689 ;
690 [label="gini = 0.0\nsamples = 34\nvalue = [0, 34]"] ;
688 -> 690 ;
691 [label="X[3] <= 0.5\ngini = 0.24\nsamples = 93\nvalue = [13, 80]"] ;
681 -> 691 ;
692 [label="X[6] <= 31.5\ngini = 0.121\nsamples = 31\nvalue = [2, 29]"] ;
691 -> 692 ;
693 [label="X[5] <= 0.5\ngini = 0.095\nsamples = 20\nvalue = [1, 19]"] ;
692 -> 693 ;
694 [label="gini = 0.0\nsamples = 10\nvalue = [0, 10]"] ;
693 -> 694 ;
695 [label="gini = 0.18\nsamples = 10\nvalue = [1, 9]"] ;
693 -> 695 ;
696 [label="gini = 0.165\nsamples = 11\nvalue = [1, 10]"] ;
692 -> 696 ;
697 [label="X[6] <= 38.0\ngini = 0.292\nsamples = 62\nvalue = [11, 51]"] ;
691 -> 697 ;
698 [label="X[6] <= 31.5\ngini = 0.26\nsamples = 52\nvalue = [8, 44]"] ;
697 -> 698 ;
699 [label="X[5] <= 0.5\ngini = 0.301\nsamples = 38\nvalue = [7, 31]"] ;
698 -> 699 ;
700 [label="gini = 0.245\nsamples = 14\nvalue = [2, 12]"] ;
699 -> 700 ;
701 [label="X[6] <= 27.5\ngini = 0.33\nsamples = 24\nvalue = [5, 19]"] ;
699 -> 701 ;
702 [label="gini = 0.298\nsamples = 11\nvalue = [2, 9]"] ;
701 -> 702 ;
703 [label="gini = 0.355\nsamples = 13\nvalue = [3, 10]"] ;
701 -> 703 ;
704 [label="gini = 0.133\nsamples = 14\nvalue = [1, 13]"] ;
698 -> 704 ;
705 [label="gini = 0.42\nsamples = 10\nvalue = [3, 7]"] ;
697 -> 705 ;
706 [label="X[8] <= 15.5\ngini = 0.011\nsamples = 4263\nvalue = [23, 4240]"] ;
656 -> 706 ;
707 [label="X[7] <= 0.5\ngini = 0.028\nsamples = 1427\nvalue = [20, 1407]"] ;
706 -> 707 ;
708 [label="X[2] <= 0.5\ngini = 0.008\nsamples = 991\nvalue = [4, 987]"] ;
707 -> 708 ;
709 [label="X[6] <= 30.5\ngini = 0.005\nsamples = 767\nvalue = [2, 765]"] ;
708 -> 709 ;
710 [label="gini = 0.0\nsamples = 555\nvalue = [0, 555]"] ;
709 -> 710 ;
711 [label="X[6] <= 31.5\ngini = 0.019\nsamples = 212\nvalue = [2, 210]"] ;
709 -> 711 ;
712 [label="X[8] <= 14.5\ngini = 0.08\nsamples = 48\nvalue = [2, 46]"] ;
711 -> 712 ;
713 [label="gini = 0.0\nsamples = 21\nvalue = [0, 21]"] ;
712 -> 713 ;
714 [label="X[5] <= 0.5\ngini = 0.137\nsamples = 27\nvalue = [2, 25]"] ;
712 -> 714 ;
715 [label="gini = 0.26\nsamples = 13\nvalue = [2, 11]"] ;
714 -> 715 ;
716 [label="gini = 0.0\nsamples = 14\nvalue = [0, 14]"] ;
714 -> 716 ;
717 [label="gini = 0.0\nsamples = 164\nvalue = [0, 164]"] ;
711 -> 717 ;
718 [label="X[6] <= 22.5\ngini = 0.018\nsamples = 224\nvalue = [2, 222]"] ;
708 -> 718 ;
719 [label="X[6] <= 19.5\ngini = 0.063\nsamples = 61\nvalue = [2, 59]"] ;
718 -> 719 ;
720 [label="gini = 0.0\nsamples = 33\nvalue = [0, 33]"] ;
719 -> 720 ;
721 [label="X[8] <= 14.5\ngini = 0.133\nsamples = 28\nvalue = [2, 26]"] ;
719 -> 721 ;
722 [label="gini = 0.245\nsamples = 14\nvalue = [2, 12]"] ;
721 -> 722 ;
723 [label="gini = 0.0\nsamples = 14\nvalue = [0, 14]"] ;
721 -> 723 ;
724 [label="gini = 0.0\nsamples = 163\nvalue = [0, 163]"] ;
718 -> 724 ;
725 [label="X[6] <= 41.5\ngini = 0.071\nsamples = 436\nvalue = [16, 420]"] ;
707 -> 725 ;
726 [label="X[6] <= 24.5\ngini = 0.06\nsamples = 422\nvalue = [13, 409]"] ;
725 -> 726 ;
727 [label="X[3] <= 0.5\ngini = 0.038\nsamples = 205\nvalue = [4, 201]"] ;
726 -> 727 ;
728 [label="X[4] <= 0.5\ngini = 0.121\nsamples = 62\nvalue = [4, 58]"] ;
727 -> 728 ;
729 [label="X[5] <= 0.5\ngini = 0.169\nsamples = 43\nvalue = [4, 39]"] ;
728 -> 729 ;
730 [label="gini = 0.245\nsamples = 14\nvalue = [2, 12]"] ;
729 -> 730 ;
731 [label="X[8] <= 14.5\ngini = 0.128\nsamples = 29\nvalue = [2, 27]"] ;
729 -> 731 ;
732 [label="gini = 0.198\nsamples = 18\nvalue = [2, 16]"] ;
731 -> 732 ;
733 [label="gini = 0.0\nsamples = 11\nvalue = [0, 11]"] ;
731 -> 733 ;
734 [label="gini = 0.0\nsamples = 19\nvalue = [0, 19]"] ;
728 -> 734 ;
735 [label="gini = 0.0\nsamples = 143\nvalue = [0, 143]"] ;
727 -> 735 ;
736 [label="X[6] <= 26.5\ngini = 0.08\nsamples = 217\nvalue = [9, 208]"] ;
726 -> 736 ;
737 [label="X[5] <= 0.5\ngini = 0.157\nsamples = 35\nvalue = [3, 32]"] ;
736 -> 737 ;
738 [label="gini = 0.278\nsamples = 18\nvalue = [3, 15]"] ;
737 -> 738 ;
739 [label="gini = 0.0\nsamples = 17\nvalue = [0, 17]"] ;
737 -> 739 ;
740 [label="X[6] <= 28.5\ngini = 0.064\nsamples = 182\nvalue = [6, 176]"] ;
736 -> 740 ;
741 [label="gini = 0.0\nsamples = 40\nvalue = [0, 40]"] ;
740 -> 741 ;
742 [label="X[6] <= 36.5\ngini = 0.081\nsamples = 142\nvalue = [6, 136]"] ;
740 -> 742 ;
743 [label="X[6] <= 34.5\ngini = 0.105\nsamples = 108\nvalue = [6, 102]"] ;
742 -> 743 ;
744 [label="X[6] <= 29.5\ngini = 0.084\nsamples = 91\nvalue = [4, 87]"] ;
743 -> 744 ;
745 [label="X[8] <= 14.5\ngini = 0.172\nsamples = 21\nvalue = [2, 19]"] ;
744 -> 745 ;
746 [label="gini = 0.298\nsamples = 11\nvalue = [2, 9]"] ;
745 -> 746 ;
747 [label="gini = 0.0\nsamples = 10\nvalue = [0, 10]"] ;
745 -> 747 ;
748 [label="X[2] <= 0.5\ngini = 0.056\nsamples = 70\nvalue = [2, 68]"] ;
744 -> 748 ;
749 [label="gini = 0.0\nsamples = 50\nvalue = [0, 50]"] ;
748 -> 749 ;
750 [label="gini = 0.18\nsamples = 20\nvalue = [2, 18]"] ;
748 -> 750 ;
751 [label="gini = 0.208\nsamples = 17\nvalue = [2, 15]"] ;
743 -> 751 ;
752 [label="gini = 0.0\nsamples = 34\nvalue = [0, 34]"] ;
742 -> 752 ;
753 [label="gini = 0.337\nsamples = 14\nvalue = [3, 11]"] ;
725 -> 753 ;
754 [label="X[8] <= 16.5\ngini = 0.002\nsamples = 2836\nvalue = [3, 2833]"] ;
706 -> 754 ;
755 [label="X[7] <= 0.5\ngini = 0.006\nsamples = 655\nvalue = [2, 653]"] ;
754 -> 755 ;
756 [label="gini = 0.0\nsamples = 446\nvalue = [0, 446]"] ;
755 -> 756 ;
757 [label="X[6] <= 23.5\ngini = 0.019\nsamples = 209\nvalue = [2, 207]"] ;
755 -> 757 ;
758 [label="X[6] <= 21.5\ngini = 0.045\nsamples = 86\nvalue = [2, 84]"] ;
757 -> 758 ;
759 [label="gini = 0.0\nsamples = 64\nvalue = [0, 64]"] ;
758 -> 759 ;
760 [label="X[5] <= 0.5\ngini = 0.165\nsamples = 22\nvalue = [2, 20]"] ;
758 -> 760 ;
761 [label="gini = 0.0\nsamples = 10\nvalue = [0, 10]"] ;
760 -> 761 ;
762 [label="gini = 0.278\nsamples = 12\nvalue = [2, 10]"] ;
760 -> 762 ;
763 [label="gini = 0.0\nsamples = 123\nvalue = [0, 123]"] ;
757 -> 763 ;
764 [label="X[6] <= 27.5\ngini = 0.001\nsamples = 2181\nvalue = [1, 2180]"] ;
754 -> 764 ;
765 [label="gini = 0.0\nsamples = 1333\nvalue = [0, 1333]"] ;
764 -> 765 ;
766 [label="X[6] <= 28.5\ngini = 0.002\nsamples = 848\nvalue = [1, 847]"] ;
764 -> 766 ;
767 [label="X[8] <= 18.5\ngini = 0.02\nsamples = 100\nvalue = [1, 99]"] ;
766 -> 767 ;
768 [label="X[8] <= 17.5\ngini = 0.04\nsamples = 49\nvalue = [1, 48]"] ;
767 -> 768 ;
769 [label="gini = 0.0\nsamples = 25\nvalue = [0, 25]"] ;
768 -> 769 ;
770 [label="X[5] <= 0.5\ngini = 0.08\nsamples = 24\nvalue = [1, 23]"] ;
768 -> 770 ;
771 [label="gini = 0.0\nsamples = 11\nvalue = [0, 11]"] ;
770 -> 771 ;
772 [label="gini = 0.142\nsamples = 13\nvalue = [1, 12]"] ;
770 -> 772 ;
773 [label="gini = 0.0\nsamples = 51\nvalue = [0, 51]"] ;
767 -> 773 ;
774 [label="gini = 0.0\nsamples = 748\nvalue = [0, 748]"] ;
766 -> 774 ;
775 [label="gini = 0.355\nsamples = 13\nvalue = [3, 10]"] ;
655 -> 775 ;
776 [label="X[8] <= 13.5\ngini = 0.469\nsamples = 88\nvalue = [33, 55]"] ;
590 -> 776 ;
777 [label="X[7] <= 0.5\ngini = 0.478\nsamples = 43\nvalue = [26, 17]"] ;
776 -> 777 ;
778 [label="X[6] <= 29.0\ngini = 0.472\nsamples = 21\nvalue = [8, 13]"] ;
777 -> 778 ;
779 [label="gini = 0.32\nsamples = 10\nvalue = [2, 8]"] ;
778 -> 779 ;
780 [label="gini = 0.496\nsamples = 11\nvalue = [6, 5]"] ;
778 -> 780 ;
781 [label="X[6] <= 22.5\ngini = 0.298\nsamples = 22\nvalue = [18, 4]"] ;
777 -> 781 ;
782 [label="gini = 0.42\nsamples = 10\nvalue = [7, 3]"] ;
781 -> 782 ;
783 [label="gini = 0.153\nsamples = 12\nvalue = [11, 1]"] ;
781 -> 783 ;
784 [label="X[8] <= 16.5\ngini = 0.263\nsamples = 45\nvalue = [7, 38]"] ;
776 -> 784 ;
785 [label="X[7] <= 0.5\ngini = 0.413\nsamples = 24\nvalue = [7, 17]"] ;
784 -> 785 ;
786 [label="gini = 0.142\nsamples = 13\nvalue = [1, 12]"] ;
785 -> 786 ;
787 [label="gini = 0.496\nsamples = 11\nvalue = [6, 5]"] ;
785 -> 787 ;
788 [label="gini = 0.0\nsamples = 21\nvalue = [0, 21]"] ;
784 -> 788 ;
}